svm_type epsilon_svr
kernel_type rbf
gamma 0.05
nr_class 2
total_sv 143
rho -92.2974
probA 3.93215
SV
1122.80227341212 1:0.868992 2:0.459775 3:0.353652 4:0.308538 5:0.080066 6:-0.275387 7:-0.229661 8:-0.147653 9:0.0622772 10:0.347356 11:0.359001 
3000 1:0.620958 2:0.147244 3:0.0449084 4:0.00731014 5:0.063232 6:-0.176376 7:-0.190114 8:-0.181108 9:-0.133431 10:0.180875 11:0.421588 
-3000 1:0.979685 2:0.770082 3:0.66175 4:0.608883 5:0.767214 6:0.495474 7:0.318464 8:0.22284 9:-0.458897 10:-0.257497 11:0.322305 
-3000 1:-0.759623 2:-0.809603 3:-0.823723 4:-0.829326 5:-0.83363 6:-0.736777 7:-0.667623 8:-0.635816 9:0.713116 10:0.694926 11:0.647509 
-3000 1:0.999569 2:0.990291 3:0.961747 4:0.928999 5:0.939583 6:1 7:0.989113 8:0.935036 9:-0.826977 10:-0.604777 11:-0.220842 
-3000 1:0.970984 2:0.727562 3:0.628075 4:0.584856 5:0.730903 6:0.328535 7:0.168352 8:0.155367 9:-0.391172 10:-0.174943 11:0.213051 
-3000 1:0.308788 2:-0.157427 3:-0.245091 4:-0.279231 5:-0.0382971 6:-0.38143 7:-0.382856 8:-0.358809 9:-0.0240719 10:0.385819 11:0.540772 
-239.6579638326064 1:-0.0722579 2:-0.445597 3:-0.515096 4:-0.546239 5:0.106684 6:-0.422482 7:-0.512559 8:-0.566281 9:0.137422 10:0.674103 11:0.954209 
3000 1:-0.453594 2:-0.664469 3:-0.706579 4:-0.723167 5:-0.281277 6:-0.434202 7:-0.428219 8:-0.433727 9:0.343593 10:0.622527 11:0.704329 
3000 1:0.999985 2:0.999822 3:0.99909 4:0.997499 5:0.989355 6:0.944816 7:0.887788 8:0.877189 9:-0.621421 10:-0.845982 11:-0.911827 
-3000 1:0.99997 2:0.999618 3:0.99786 4:0.993495 5:0.968072 6:0.897086 7:0.905572 8:0.936131 9:-0.784147 10:-0.945547 11:-0.916778 
-1294.702736592496 1:0.720141 2:0.338377 3:0.263395 4:0.232524 5:-0.179371 6:-0.0475304 7:0.055893 8:0.120303 9:0.0199779 10:0.0817386 11:0.209434 
3000 1:-0.0981367 2:-0.458515 3:-0.513742 4:-0.535099 5:-0.120981 6:-0.56351 7:-0.566611 8:-0.525482 9:0.250431 10:0.660677 11:0.73895 
806.8220134033909 1:0.482663 2:0.0143107 3:-0.0771074 4:-0.119477 5:0.0606712 6:-0.276388 7:-0.281738 8:-0.219867 9:-0.191754 10:0.138285 11:0.116472 
1884.167706612933 1:0.832557 2:0.399178 3:0.29059 4:0.244302 5:0.250474 6:-0.164284 7:-0.222072 8:-0.237852 9:-0.257463 10:0.248216 11:0.523879 
-409.0044011337175 1:0.977512 2:0.753475 3:0.633785 4:0.580105 5:0.648079 6:0.338971 7:0.161314 8:0.14488 9:-0.73028 10:-0.360965 11:-0.10404 
3000 1:0.999947 2:0.998022 3:0.988811 4:0.972943 5:0.921436 6:0.83588 7:0.910798 8:0.948858 9:-0.917589 10:-0.920263 11:-0.725373 
3000 1:-0.0670194 2:-0.449671 3:-0.518825 4:-0.546652 5:-0.027307 6:-0.54267 7:-0.638831 8:-0.693123 9:0.233015 10:0.724663 11:0.847179 
3000 1:0.961664 2:0.681867 3:0.567041 4:0.517794 5:0.734678 6:0.555797 7:0.421017 8:0.362344 9:-0.629148 10:-0.163918 11:0.330199 
-3000 1:0.63422 2:0.11909 3:0.00590614 4:-0.0465026 5:0.44278 6:-0.226775 7:-0.393175 8:-0.47581 9:-0.181055 10:0.48649 11:0.774983 
3000 1:0.443435 2:-0.0585494 3:-0.147967 4:-0.178745 5:0.1633 6:-0.198916 7:-0.18364 8:-0.165805 9:-0.0902612 10:0.38042 11:0.559559 
3000 1:0.923176 2:0.567601 3:0.455898 4:0.40714 5:0.673753 6:0.427018 7:0.321187 8:0.282413 9:-0.524047 10:-0.0468022 11:0.393989 
-3000 1:-0.541934 2:-0.730607 3:-0.758702 4:-0.768599 5:-0.476292 6:-0.52266 7:-0.460818 8:-0.406328 9:0.395844 10:0.656316 11:0.64041 
-2554.024964571114 1:0.999996 2:1 3:1 4:1 5:1 6:0.965105 7:0.877022 8:0.876165 9:-0.697458 10:-0.92804 11:-1 
685.4639850991786 1:0.973362 2:0.715874 3:0.590145 4:0.535231 5:0.825669 6:0.524797 7:0.2466 8:0.101298 9:-0.695137 10:-0.121829 11:0.551363 
-3000 1:0.827523 2:0.363279 3:0.252131 4:0.2017 5:0.543275 6:0.0699354 7:-0.0486714 8:-0.109438 9:-0.365507 10:0.178985 11:0.622195 
-3000 1:0.622292 2:0.183425 3:0.106007 4:0.0724863 5:0.190279 6:-0.231307 7:-0.187352 8:-0.142844 9:-0.0483959 10:0.239931 11:0.424945 
-3000 1:0.304441 2:-0.129551 3:-0.209547 4:-0.242631 5:-0.680762 6:-0.607822 7:-0.455138 8:-0.329853 9:0.415829 10:0.589123 11:0.461921 
-420.0692692097135 1:0.312291 2:-0.148386 3:-0.233378 4:-0.268623 5:0.0926484 6:-0.247585 7:-0.275967 8:-0.293376 9:0.0225177 10:0.478246 11:0.663314 
613.6880777437889 1:0.951822 2:0.721985 3:0.625942 4:0.582499 5:0.699426 6:0.458298 7:0.406762 8:0.407737 9:-0.182929 10:0.275602 11:0.535526 
-3000 1:0.994467 2:0.893896 3:0.810816 4:0.769321 5:0.730944 6:0.491466 7:0.412552 8:0.401715 9:-0.545191 10:-0.431813 11:-0.0628338 
1991.414005572374 1:-0.31042 2:-0.549921 3:-0.598396 4:-0.619235 5:-0.0767829 6:-0.146127 7:-0.0930102 8:-0.0612092 9:0.231409 10:0.468427 11:0.57132 
-731.5988923069673 1:0.451191 2:-0.0493135 3:-0.147676 4:-0.192954 5:0.380623 6:-0.24436 7:-0.373169 8:-0.44495 9:-0.0925194 10:0.529955 11:0.90718 
3000 1:0.677243 2:0.183362 3:0.0787985 4:0.0348283 5:0.333659 6:-0.0795014 7:-0.143362 8:-0.171728 9:-0.193074 10:0.329276 11:0.611386 
-2656.708003822021 1:0.175773 2:-0.230799 3:-0.30311 4:-0.339266 5:-0.299318 6:-0.671847 7:-0.726573 8:-0.74737 9:0.275297 10:0.700632 11:0.835009 
-3000 1:0.984262 2:0.803716 3:0.69229 4:0.649462 5:0.570319 6:0.261906 7:0.181801 8:0.204352 9:-0.484804 10:-0.102374 11:0.185719 
-3000 1:0.996799 2:0.916942 3:0.823267 4:0.769847 5:0.873446 6:0.791734 7:0.579591 8:0.423255 9:-0.626278 10:-0.484231 11:0.0997167 
-3000 1:0.867076 2:0.422811 3:0.29982 4:0.238038 5:0.651707 6:0.033542 7:-0.189172 8:-0.296972 9:-0.404024 10:0.260788 11:0.665828 
3000 1:0.52002 2:0.0278773 3:-0.0620872 4:-0.099962 5:0.122738 6:-0.238098 7:-0.247367 8:-0.217321 9:-0.059433 10:0.408597 11:0.559485 
-3000 1:0.991957 2:0.846863 3:0.735048 4:0.67885 5:0.767271 6:0.722378 7:0.504402 8:0.355775 9:-0.771216 10:-0.368589 11:0.199847 
3000 1:0.983256 2:0.773528 3:0.653042 4:0.603445 5:0.747023 6:0.555636 7:0.354666 8:0.257137 9:-0.684298 10:-0.244267 11:0.211567 
-3000 1:0.949437 2:0.649773 3:0.536365 4:0.494493 5:0.433809 6:0.0679209 7:0.0217684 8:0.0712955 9:-0.327315 10:0.137927 11:0.355444 
3000 1:0.854592 2:0.440102 3:0.344477 4:0.306136 5:-0.188801 6:-0.447745 7:-0.360052 8:-0.296617 9:0.130426 10:0.251535 11:0.360597 
-3000 1:-0.0849875 2:-0.454609 3:-0.52566 4:-0.560412 5:0.0503131 6:-0.507343 7:-0.613058 8:-0.667828 9:0.148093 10:0.707342 11:0.857371 
3000 1:-0.648579 2:-0.7903 3:-0.819606 4:-0.830361 5:-0.578962 6:-0.608644 7:-0.534955 8:-0.489311 9:0.364571 10:0.560648 11:0.591671 
-3000 1:-0.30206 2:-0.561034 3:-0.601687 4:-0.621179 5:-0.607082 6:-0.809935 7:-0.826827 8:-0.829806 9:0.486459 10:0.786213 11:0.854338 
3000 1:0.824076 2:0.383207 3:0.267641 4:0.217857 5:0.381945 6:-0.0752406 7:-0.143072 8:-0.103111 9:-0.424542 10:-0.0278986 11:0.0591526 
-3000 1:0.991583 2:0.85627 3:0.760283 4:0.71579 5:0.729048 6:0.246217 7:0.072034 8:0.043866 9:-0.274095 10:-0.209681 11:0.116066 
-3000 1:0.737482 2:0.269136 3:0.165925 4:0.11811 5:0.0788184 6:-0.333893 7:-0.346306 8:-0.339169 9:-0.0140991 10:0.462819 11:0.661346 
3000 1:0.537834 2:0.0201757 3:-0.082836 4:-0.129151 5:0.333429 6:-0.284485 7:-0.42027 8:-0.495072 9:-0.064095 10:0.533504 11:0.787101 
3000 1:-0.636836 2:-0.78082 3:-0.808751 4:-0.816929 5:-0.363978 6:-0.422884 7:-0.332926 8:-0.274083 9:0.350181 10:0.591158 11:0.623173 
3000 1:0.996508 2:0.916881 3:0.83181 4:0.786364 5:0.832711 6:0.710159 7:0.487991 8:0.406932 9:-0.560391 10:-0.44283 11:-0.0534656 
3000 1:0.957967 2:0.665183 3:0.546791 4:0.495851 5:0.502294 6:0.0238318 7:-0.068474 8:-0.0703247 9:0.020157 10:0.130969 11:0.335845 
-3000 1:0.989247 2:0.829643 3:0.721936 4:0.670538 5:0.693377 6:0.507579 7:0.376999 8:0.310421 9:-0.616061 10:-0.306494 11:0.115645 
3000 1:0.888181 2:0.493947 3:0.375104 4:0.325863 5:0.197551 6:-0.251741 7:-0.262381 8:-0.232412 9:0.157925 10:0.295681 11:0.430616 
-3000 1:0.944225 2:0.669643 3:0.583032 4:0.54455 5:0.412469 6:0.176236 7:0.20491 8:0.236288 9:-0.302176 10:-0.127266 11:0.139177 
-3000 1:0.949845 2:0.657959 3:0.549575 4:0.496777 5:0.422146 6:-0.0387816 7:-0.164612 8:-0.209206 9:-0.381702 10:0.0224265 11:0.357794 
3000 1:0.996678 2:0.911013 3:0.809505 4:0.754842 5:0.770882 6:0.787954 7:0.575957 8:0.43171 9:-0.852344 10:-0.456733 11:0.106621 
-3000 1:0.890948 2:0.519757 3:0.425985 4:0.38697 5:0.572256 6:0.0440082 7:-0.00814678 8:0.00985211 9:-0.242689 10:0.0247821 11:0.334002 
-3000 1:-0.290717 2:-0.576662 3:-0.631562 4:-0.656855 5:-0.138217 6:-0.422132 7:-0.408628 8:-0.417585 9:0.18526 10:0.613577 11:0.802097 
-3000 1:0.794183 2:0.355302 3:0.247012 4:0.210929 5:0.160066 6:-0.179636 7:-0.16701 8:-0.0930699 9:-0.0652087 10:0.421416 11:0.47897 
-2524.694453612576 1:0.481325 2:-0.0159815 3:-0.113924 4:-0.149659 5:0.0764546 6:-0.315617 7:-0.340179 8:-0.324931 9:-0.101617 10:0.329743 11:0.525395 
-582.6105025211904 1:-0.158965 2:-0.469269 3:-0.504606 4:-0.500615 5:-0.798181 6:-0.457402 7:-0.292144 8:-0.190567 9:1 10:1 11:0.845529 
3000 1:0.565946 2:0.0568664 3:-0.0452521 4:-0.0880103 5:0.125602 6:-0.339464 7:-0.376334 8:-0.384485 9:0.0316747 10:0.57918 11:0.803362 
3000 1:0.439145 2:-0.00503815 3:-0.0954022 4:-0.132795 5:0.223618 6:-0.462751 7:-0.581574 8:-0.620052 9:-0.0287876 10:0.582909 11:0.910332 
3000 1:0.947762 2:0.629671 3:0.516384 4:0.46765 5:0.579249 6:0.204313 7:0.0556035 8:0.00863192 9:-0.499206 10:-0.168978 11:0.263572 
-2702.618981449959 1:-0.335071 2:-0.570702 3:-0.613646 4:-0.632254 5:-0.420381 6:-0.488456 7:-0.431384 8:-0.348341 9:0.158215 10:0.283362 11:0.158481 
3000 1:0.979998 2:0.759798 3:0.640882 4:0.586836 5:0.657674 6:0.35951 7:0.180088 8:0.105695 9:-0.527199 10:-0.0582925 11:0.45952 
-3000 1:1 2:0.998979 3:0.994507 4:0.985867 5:0.939362 6:0.780097 7:0.740637 8:0.762412 9:-0.60025 10:-0.833162 11:-0.802446 
3000 1:0.999902 2:0.995694 3:0.978348 4:0.953569 5:0.924842 6:0.801689 7:0.716508 8:0.684366 9:-0.394425 10:-0.512921 11:-0.44036 
596.4127873656472 1:-1 2:-1 3:-1 4:-1 5:-0.930834 6:-1 7:-1 8:-1 9:0.845231 10:0.973053 11:0.912272 
-3000 1:0.951304 2:0.646691 3:0.545183 4:0.503877 5:0.323498 6:-0.204908 7:-0.201878 8:-0.171135 9:-0.0525508 10:0.0715568 11:0.29897 
-3000 1:0.993397 2:0.863903 3:0.751965 4:0.698412 5:0.770891 6:0.636415 7:0.370138 8:0.251693 9:-0.804454 10:-0.435043 11:0.089419 
-3000 1:0.749422 2:0.281538 3:0.177534 4:0.128677 5:0.202254 6:-0.385953 7:-0.512793 8:-0.565465 9:-0.050054 10:0.489981 11:0.756699 
3000 1:0.787384 2:0.331623 3:0.211453 4:0.163252 5:-0.0943556 6:-0.440704 7:-0.403163 8:-0.351042 9:0.267535 10:0.406763 11:0.479137 
-3000 1:0.734046 2:0.253307 3:0.142502 4:0.0886881 5:0.126653 6:-0.294943 7:-0.33268 8:-0.326291 9:0.0674262 10:0.453294 11:0.593549 
-3000 1:0.911301 2:0.544163 3:0.434814 4:0.38427 5:0.493988 6:0.176371 7:0.105372 8:0.0812156 9:-0.382679 10:4.33155e-005 11:0.320931 
-3000 1:0.99029 2:0.836619 3:0.723212 4:0.669518 5:0.688223 6:0.491178 7:0.289358 8:0.247731 9:-0.818246 10:-0.47907 11:-0.190804 
3000 1:0.697128 2:0.230178 3:0.137835 4:0.0990426 5:-0.195466 6:-0.348821 7:-0.261047 8:-0.197012 9:0.0484324 10:0.250882 11:0.412927 
-3000 1:0.724775 2:0.217822 3:0.10938 4:0.0569959 5:0.574349 6:-0.067698 7:-0.235822 8:-0.323665 9:-0.279037 10:0.37533 11:0.849626 
-3000 1:0.278275 2:-0.13567 3:-0.217239 4:-0.243736 5:-0.244212 6:-0.398792 7:-0.334593 8:-0.241286 9:0.284106 10:0.628263 11:0.541437 
3000 1:0.985279 2:0.793854 3:0.678734 4:0.629666 5:0.704499 6:0.490448 7:0.225686 8:0.146399 9:-0.731816 10:-0.238581 11:0.280324 
8.972774526759411 1:0.475595 2:0.0175257 3:-0.058327 4:-0.0888939 5:-0.837783 6:-0.673067 7:-0.519663 8:-0.42168 9:0.48136 10:0.455522 11:0.414128 
3000 1:0.734296 2:0.26482 3:0.162516 4:0.116844 5:0.460008 6:-0.277244 7:-0.437733 8:-0.497161 9:-0.21502 10:0.414585 11:0.847838 
672.2181456066132 1:0.786371 2:0.361406 3:0.263249 4:0.236855 5:0.22819 6:0.0731212 7:0.123094 8:0.169688 9:0.321938 10:0.683093 11:0.723709 
3000 1:0.165315 2:-0.214066 3:-0.291124 4:-0.320877 5:0.0378539 6:-0.567347 7:-0.658168 8:-0.685775 9:0.0996324 10:0.672289 11:0.938537 
-3000 1:0.998174 2:0.947687 3:0.872902 4:0.826221 5:0.788964 6:0.461978 7:0.326182 8:0.278178 9:-0.2874 10:-0.264486 11:-0.06729 
-3000 1:0.362038 2:-0.116128 3:-0.206522 4:-0.249666 5:-0.273726 6:-0.534778 7:-0.506366 8:-0.467956 9:0.294567 10:0.609362 11:0.66324 
3000 1:-0.738227 2:-0.787309 3:-0.802757 4:-0.809182 5:-0.574563 6:-0.850528 7:-0.873309 8:-0.867261 9:0.577872 10:0.8852 11:1 
3000 1:0.873207 2:0.459222 3:0.34719 4:0.302872 5:0.402119 6:0.029609 7:-0.0607165 8:-0.0825567 9:-0.357441 10:-0.0116127 11:0.342644 
3000 1:-0.145533 2:-0.435861 3:-0.482755 4:-0.509073 5:-0.69735 6:-0.679901 7:-0.634594 8:-0.592581 9:0.398094 10:0.575347 11:0.548802 
3000 1:0.53456 2:0.0263452 3:-0.0695137 4:-0.106635 5:0.227263 6:-0.158987 7:-0.156537 8:-0.14672 9:-0.137837 10:0.349669 11:0.546078 
3000 1:-0.328562 2:-0.568458 3:-0.610161 4:-0.632562 5:-0.59921 6:-0.715696 7:-0.65577 8:-0.622054 9:0.591723 10:0.780186 11:0.760017 
-2476.630098498393 1:-0.379072 2:-0.539235 3:-0.569146 4:-0.580275 5:-0.583731 6:-0.508894 7:-0.377312 8:-0.303557 9:0.353236 10:0.443941 11:0.490622 
-3000 1:0.730123 2:0.302507 3:0.204962 4:0.161964 5:0.014782 6:-0.0179586 7:0.0162251 8:0.0219784 9:-0.037247 10:0.0889418 11:0.508739 
3000 1:0.942063 2:0.621746 3:0.507386 4:0.457352 5:0.454419 6:0.0396469 7:-0.0731293 8:-0.110349 9:-0.441978 10:0.0463088 11:0.439532 
-3000 1:0.600559 2:0.139676 3:0.047901 4:0.00422548 5:0.110541 6:-0.0700491 7:-0.078344 8:-0.0751714 9:-0.101101 10:0.242175 11:0.42034 
3000 1:0.949709 2:0.621188 3:0.501898 4:0.447666 5:0.569055 6:0.141136 7:0.00804898 8:-0.0472168 9:-0.394437 10:0.131744 11:0.596346 
-3000 1:0.937868 2:0.582675 3:0.457408 4:0.393826 5:0.737617 6:0.23569 7:-0.0312629 8:-0.160675 9:-0.537851 10:0.0902902 11:0.56142 
-3000 1:0.524771 2:0.0491868 3:-0.0422618 4:-0.0801051 5:0.316891 6:0.0600461 7:0.0572935 8:0.0656253 9:-0.125291 10:0.289267 11:0.523577 
3000 1:0.494985 2:0.030822 3:-0.0608934 4:-0.100557 5:-0.090104 6:-0.382448 7:-0.380802 8:-0.370459 9:0.026217 10:0.446451 11:0.592717 
-3000 1:0.97146 2:0.731214 3:0.62239 4:0.570639 5:0.725412 6:0.430142 7:0.274559 8:0.19209 9:-0.423829 10:-0.211147 11:0.355594 
3000 1:0.999913 2:0.998151 3:0.990342 4:0.975757 5:0.930702 6:0.95734 7:1 8:0.993914 9:-0.946496 10:-0.975346 11:-0.763684 
-3000 1:0.999664 2:0.985082 3:0.948097 4:0.913162 5:0.848453 6:0.698076 7:0.640818 8:0.604817 9:-0.616125 10:-0.704791 11:-0.407784 
-3000 1:0.505526 2:0.0554075 3:-0.0351997 4:-0.0774969 5:-0.221 6:-0.487437 7:-0.495584 8:-0.479297 9:0.0858176 10:0.442095 11:0.5137 
3000 1:0.992819 2:0.858749 3:0.751397 4:0.700962 5:0.809163 6:0.557545 7:0.280834 8:0.14547 9:-0.710851 10:-0.336257 11:0.344003 
-1762.98737586948 1:-0.639912 2:-0.787845 3:-0.822944 4:-0.840633 5:-0.211684 6:-0.640475 7:-0.717478 8:-0.760116 9:0.354532 10:0.795961 11:0.886374 
3000 1:0.655208 2:0.139179 3:0.036893 4:0.000789621 5:0.3304 6:-0.278778 7:-0.361735 8:-0.346312 9:-0.132327 10:0.42778 11:0.66492 
3000 1:0.815708 2:0.359148 3:0.252825 4:0.206042 5:0.380492 6:-0.0303781 7:-0.0956391 8:-0.0877661 9:-0.274 10:0.223491 11:0.476435 
3000 1:-0.217972 2:-0.500457 3:-0.541432 4:-0.557264 5:-0.840599 6:-0.58394 7:-0.419456 8:-0.323352 9:0.592816 10:0.497891 11:0.476379 
-3000 1:0.449108 2:-0.0482271 3:-0.141526 4:-0.180731 5:0.242184 6:-0.215278 7:-0.257507 8:-0.287528 9:-0.098803 10:0.433596 11:0.73802 
-3000 1:0.924718 2:0.573848 3:0.462703 4:0.410059 5:0.408439 6:-0.0542121 7:-0.136966 8:-0.156716 9:-0.277572 10:0.193846 11:0.544848 
3000 1:0.935607 2:0.612924 3:0.50462 4:0.460729 5:0.369379 6:-0.0569347 7:-0.0813211 8:-0.0601062 9:-0.243649 10:0.00190249 11:0.310499 
3000 1:0.972783 2:0.734285 3:0.626464 4:0.578302 5:0.466673 6:0.0168049 7:-0.0317558 8:-3.77765e-005 9:-0.129949 10:0.0819262 11:0.229935 
453.5673550231726 1:0.999981 2:0.998093 3:0.989771 4:0.974623 5:0.931236 6:0.875096 7:0.960289 8:1 9:-1 10:-1 11:-0.753531 
3000 1:0.999853 2:0.996468 3:0.982924 4:0.961622 5:0.91661 6:0.623969 7:0.564197 8:0.529048 9:-0.648298 10:-0.800627 11:-0.607384 
3000 1:0.996489 2:0.911829 3:0.818664 4:0.770558 5:0.801193 6:0.598811 7:0.402177 8:0.31064 9:-0.28833 10:-0.251555 11:0.000506011 
-3000 1:0.819907 2:0.398781 3:0.29693 4:0.245527 5:0.155839 6:-0.28445 7:-0.34257 8:-0.35604 9:-0.160471 10:0.265817 11:0.454545 
-830.6612280859529 1:0.999278 2:0.974584 3:0.918879 4:0.873699 5:0.818167 6:0.77061 7:0.714884 8:0.641082 9:-0.7604 10:-0.630432 11:-0.248697 
3000 1:0.999562 2:0.979604 3:0.931037 4:0.889496 5:0.814408 6:0.635393 7:0.551428 8:0.471696 9:-0.566893 10:-0.507104 11:-0.264733 
-3000 1:0.780815 2:0.323573 3:0.218919 4:0.171164 5:0.142297 6:-0.292928 7:-0.315322 8:-0.312083 9:-0.0603369 10:0.420261 11:0.644189 
-3000 1:0.992962 2:0.866017 3:0.761658 4:0.712005 5:0.811543 6:0.823832 7:0.677227 8:0.572348 9:-0.820835 10:-0.429597 11:0.124332 
45.96612352763943 1:0.995196 2:0.897763 3:0.80316 4:0.75447 5:0.727579 6:0.418439 7:0.253943 8:0.201794 9:-0.512592 10:-0.375229 11:0.0173807 
3000 1:0.988408 2:0.820819 3:0.709778 4:0.655987 5:0.633395 6:0.279735 7:0.0106035 8:-0.103972 9:-0.523919 10:-0.103495 11:0.409114 
3000 1:0.158984 2:-0.290153 3:-0.374685 4:-0.407514 5:0.0895377 6:-0.4672 7:-0.575569 8:-0.636598 9:0.139894 10:0.671159 11:0.831116 
3000 1:0.938125 2:0.604986 3:0.486598 4:0.43256 5:0.443716 6:0.0308413 7:-0.102735 8:-0.136403 9:-0.237358 10:0.189266 11:0.475659 
3000 1:0.903916 2:0.503538 3:0.386424 4:0.341342 5:0.579693 6:0.181996 7:0.0747763 8:0.0337495 9:-0.468641 10:0.0469604 11:0.417314 
-3000 1:0.533548 2:0.0259263 3:-0.0717432 4:-0.114224 5:0.301633 6:-0.17361 7:-0.22749 8:-0.261867 9:-0.143146 10:0.396631 11:0.72311 
-3000 1:0.857673 2:0.433845 3:0.324255 4:0.272793 5:0.352734 6:-0.250513 7:-0.408014 8:-0.473947 9:-0.171332 10:0.379901 11:0.71484 
3000 1:0.977319 2:0.75056 3:0.639617 4:0.58746 5:0.650123 6:0.397616 7:0.27765 8:0.226081 9:-0.547247 10:-0.206172 11:0.197156 
-3000 1:0.999233 2:0.967869 3:0.906132 4:0.865811 5:0.771547 6:0.588489 7:0.533801 8:0.508683 9:-0.633146 10:-0.575043 11:-0.287082 
-824.3199897866291 1:-0.189315 2:-0.494259 3:-0.556466 4:-0.578488 5:-1 6:-0.895727 7:-0.764313 8:-0.671806 9:0.778203 10:0.723454 11:0.575858 
-3000 1:0.918425 2:0.541639 3:0.423664 4:0.373482 5:0.556514 6:0.128022 7:-0.0420757 8:-0.079561 9:-0.50383 10:-0.0371711 11:0.384158 
3000 1:0.0228475 2:-0.367851 3:-0.438536 4:-0.473582 5:-0.536635 6:-0.661241 7:-0.595098 8:-0.539735 9:0.425791 10:0.680928 11:0.692256 
-3000 1:-0.775017 2:-0.862371 3:-0.885117 4:-0.894569 5:-0.246239 6:-0.596779 7:-0.650203 8:-0.685734 9:0.422018 10:0.798454 11:0.989041 
3000 1:0.99952 2:0.979299 3:0.929702 4:0.886091 5:0.789555 6:0.650194 7:0.556788 8:0.475179 9:-0.678042 10:-0.623365 11:-0.235889 
-139.3340586186087 1:0.998579 2:0.951241 3:0.879265 4:0.839707 5:0.881399 6:0.889836 7:0.798844 8:0.734091 9:-0.653938 10:-0.378111 11:0.0755169 
3000 1:0.667363 2:0.160114 3:0.0535562 4:0.0076837 5:0.201688 6:-0.276021 7:-0.323925 8:-0.338897 9:-0.0411977 10:0.521063 11:0.783016 
3000 1:0.905322 2:0.513456 3:0.396658 4:0.346324 5:0.561611 6:0.1846 7:0.0545198 8:0.00398542 9:-0.453942 10:0.0923611 11:0.50076 
3000 1:0.306456 2:-0.118902 3:-0.205642 4:-0.237996 5:-0.16266 6:-0.284997 7:-0.260961 8:-0.237822 9:0.0339 10:0.282115 11:0.452847 
-731.8723279821807 1:0.339542 2:-0.147616 3:-0.231263 4:-0.259864 5:0.100019 6:-0.443794 7:-0.48064 8:-0.450201 9:0.0659458 10:0.567326 11:0.712222 
3000 1:0.9991 2:0.966887 3:0.903852 4:0.858087 5:0.815688 6:0.63149 7:0.485542 8:0.401874 9:-0.576852 10:-0.571734 11:-0.22811 
-3000 1:-0.204634 2:-0.527539 3:-0.586021 4:-0.608053 5:-0.244228 6:-0.570647 7:-0.565433 8:-0.557823 9:0.387337 10:0.776396 11:0.866428 
